digraph Tree {
node [shape=box] ;
0 [label="Petal.Length <= 2.45\nentropy = 1.585\nsamples = 111\nvalue = [38, 36, 37]"] ;
1 [label="entropy = 0.0\nsamples = 38\nvalue = [38, 0, 0]"] ;
0 -> 1 [labeldistance=2.5, labelangle=45, headlabel="True"] ;
2 [label="Petal.Width <= 1.75\nentropy = 1.0\nsamples = 73\nvalue = [0, 36, 37]"] ;
0 -> 2 [labeldistance=2.5, labelangle=-45, headlabel="False"] ;
3 [label="Petal.Length <= 4.95\nentropy = 0.477\nsamples = 39\nvalue = [0, 35, 4]"] ;
2 -> 3 ;
4 [label="Petal.Width <= 1.65\nentropy = 0.191\nsamples = 34\nvalue = [0, 33, 1]"] ;
3 -> 4 ;
5 [label="entropy = 0.0\nsamples = 33\nvalue = [0, 33, 0]"] ;
4 -> 5 ;
6 [label="entropy = 0.0\nsamples = 1\nvalue = [0, 0, 1]"] ;
4 -> 6 ;
7 [label="entropy = 0.971\nsamples = 5\nvalue = [0, 2, 3]"] ;
3 -> 7 ;
8 [label="Petal.Length <= 4.85\nentropy = 0.191\nsamples = 34\nvalue = [0, 1, 33]"] ;
2 -> 8 ;
9 [label="entropy = 0.918\nsamples = 3\nvalue = [0, 1, 2]"] ;
8 -> 9 ;
10 [label="entropy = 0.0\nsamples = 31\nvalue = [0, 0, 31]"] ;
8 -> 10 ;
}